[-0.5255230453065892,-0.34454229877867293,0.17826526536788678,0.00733903756998839,0.15188878248209628,0.6560321524849893,0.16021192046338398,-0.37282231514615166,0.18168585374821739,-0.42161826068640684,-0.07467833868518622,-0.3981342395384751,-0.2291992827463863,1.0154178447479412,-1.1515185583493985,0.1416436025955781,0.8790535659643504,-0.5706404997518204,-0.18526818077636806,-0.3537319099909705,0.30861858468787007,-0.15880407545742958,-0.8322665802648553,-0.7369309566280448,-0.8037412054544771,0.37696268838448227,-0.14741443082428354,-0.553324678363606,0.12988836897291994,0.07783592143365817,0.6871601816921702,-0.5009709313719487,0.5983799051957676,0.4196516690929941,-0.08909507275709544,0.5372024562260135,0.15662140004043282,0.2687271629637526,-0.8129166913326997,-0.6566194605008936,0.7014406744862405,0.0322577590032585,0.2057717413694997,0.09245307838593678,0.443844277323903,-0.44555173656956165,-0.5652011727696076,-0.2698790451115999,0.49075613859954387,-1.634511269670167,-0.19217958154507106,-1.0978987975318302,-0.07118912730491744,-1.193069328119702,-0.04165738505243697,0.7365998230628986,-0.39161788929787805,-0.2411307354495698,-1.8236603099430209,0.14040811224848462,-1.050985747149299,-0.5448700764073425,0.18017431194181543,-0.18355176478069818,-0.32057841342738963,0.0909200289073834,0.46061114874331976,1.3183504543280884,-1.072415283936086,-0.34572594459061506,0.36552560276700685,0.8122738866542595,-0.9053560949799659,-0.15136271183222502,-0.517478692598165,0.053334910649816866,1.3737898282429923,0.1185429757796796,1.080504966196552,-0.013414604601542904,-0.7858337123038386,-0.6135433307006919,-0.49303335998187303,0.28171081830274475,0.7687893031737902,-0.06964039645032087,-0.25711519070393557,-0.6386748587737503,-0.5463105952051521,-0.03536108766662097,-0.884690265654642,-0.534719698109142,-0.5639035174892587,0.08031637608645231,0.5556033694644511,-0.23693798942534725,1.391058567577169,0.13756327114034228,-0.18351158408482837,0.1439473849276053,-1.007634898021565,-0.06745511585103593,-0.3231052297974654,0.3410599896278918,-0.21524034400935196,-0.6887980419130654,-0.5976703798120868,-0.5629193939852726,0.49918442405482616,0.607061729301305,-0.7435115119472675,-0.2187995878340775,-1.396466202606691,-1.2762950017117005,0.007248029306374038,-0.6378239921414097,-0.796931794873237,-1.0105843438760496,-1.2098320549478039,-0.016396855494359857,0.9652616334579948,0.4533037682262182,-1.2008124574627905,-0.5522362468835265,-0.1295706400560619,-0.2294187111545721,-0.8451221779186747,0.07388264193553316,1.387973366019949,-0.2655436169947903,-0.4079675054167564,-0.8856672467869168,-0.7492472522742968,0.7750912654773847,-0.41814948378780775,0.018774563814658165,-0.38455600694305936,-0.22268947776900705,-0.21092309521424235,-0.1668120800309343,1.0901433950390698,-0.24675792582421058,-0.5260428774202592,-0.15134325992648728,0.4698723781851744,0.32505217224578936,-0.09651884999775356,0.2185705919749496,0.11369156706006298,-0.1538885029026396,-1.1161488061640432,0.25841965241646014,0.6273391779820507,-0.8749347552799667,0.2495042701818751,0.45079860569243,-0.043067970877802564,-0.42168260336841823,-0.26094973745079775,-1.0023067933790786,-0.5038923173031992,-0.462564991729636,-0.5421986175790617,-0.7913093922053407,-0.8090506323101917,0.05029261505154096,-0.13760715415619554,-0.2928142704655119,1.168305413719131,-0.2729681462258954,-1.730826510362605,-0.7044665169602229,-0.6446396697251054,-0.07217357579998361,-0.16893716407513315,-0.9402686688928409,0.4475501736535759,0.08291448090447935,-0.30094924728381073,-0.007665354565905523,0.5830111834149305,0.07297153408227415,-0.2757697639260147,0.10408080810023812,-0.4076337336673881,0.41413866142978445,-0.10129606548711492,-0.002407150724704656,-0.12699475076822409,-0.8738869285712623,1.1944934946471575,-0.23808932963661614,-0.40890421379505626,0.5180383847289942,0.8134539346236563,-0.6387756409413419,-0.4062377457566584,-1.2652764205200553,-0.6592430247524207,-0.19869713846172965,0.3448451081353146,0.3297004269815001,-0.1250479165562368,0.8089383042497101,0.058409978657897495,0.7587721962541683,1.3276682031808402,-1.2387860039104681,-0.2932249793769895,0.29221699404331597,-0.5941000408331566,0.38532971490723156,0.5241931660361189,0.5432953154901794,-0.10751948660837476,0.09987356956965757,0.05816595383688751,-0.3411942187279039,-1.0829846802212324,-0.5812637438665045,0.6595549991267459,-0.16574117845311903,0.18705790368023265,0.607877423261267,0.7401996198561003,-0.4966533559871969,0.614578170994724,-0.9200251734253118,-0.8691063027379268,0.26593134273661645,-1.2669663579585662,0.057835722743848204,-0.10574150018732713,-0.603841119002155,-0.7778162574219463,-0.05168387143107774,-1.1126487260298235,-0.9064614061391986,-1.1026994097362557,0.4234866303870889,0.001998861727436042,-0.22983167442392985,-1.3481416322158277,-0.8060789016735326,-0.3761130044778049,-0.08435647407811547,0.06505540206589559,0.46479317902809003,-0.32428754642392443,0.19468231400481417,-0.01265676831544064,-0.06746783613411003,-0.7339647902321738,-0.11486803910753614,-0.4181462469674219,0.04987359274904913,-0.47596299291694477,-0.11414400252982723,-0.3263516901729191,0.23022624593603075,-0.015580999950705693,-0.4783687380377685,1.082582254522367,-0.6105908186127532,-0.4659637410229266,-0.3480418533535528,-0.8532592930476867,-0.827761993360855,0.7047408171378686,-0.161753337030745,-0.5453168319518495,-0.34941578900123993,0.3105313981129735,-0.5808862292758873,-1.0628840165393052,-0.28095381341004433,0.48328657689991034,0.323355828142586,-0.10045152057226883,-0.23104147074923748,-0.1278227769597623,0.2757779519139931,0.5950622190250627,-0.560964174522699,-0.18722605058584235,-0.3041420874770091,-0.6095660232302723,0.1410353491999393,-0.7116917373635924,-0.5781126221578518,-1.0973675131125347,-0.5110096006783655,0.9545510791665571,0.1276393504181605,0.014706063223260357,-0.707452689543243,0.19746809627495593,-0.6563022686692487,-0.4377288920437582,-0.5720232072372398,-0.0018645677609517735,-0.9845702401115487,0.9775198141713244,-1.0348682519290298,0.4457265361471926,-0.9202573031909521,0.13205915434776222,-0.4334879925569864,0.5584773246292646,-1.2414107202673006,-0.02228057432437936,0.09241098372767918,-0.40034801250224294,0.24431676664656227,-0.5932484895554081,-0.5278639510560906,0.24604369757257366,0.2671453546737006,0.24028208089402855,-0.04560438062084919,9.463608026791657E-4,-0.2171090925406846,-0.5566168047953701,0.6392155945952808,1.404060577060662,0.05072288917919488,0.3686325128260284,0.9182664725692582,-0.3222292027204922,0.12110395112406801,0.2910866391922067,-1.1997975656613664,0.08218074650820571,-0.25053918513847007,0.16530634407481506,0.5608671047231483,-0.6055945126389889,-0.6299376872068618,0.8088988516951398,-0.6987501139142634,0.052613866388440164,-0.4730889091386312,-1.4276305531600797,-0.9544017830058474,-0.04011995888858857,-0.6969086396399844,-0.6368356846387078,-0.5215453213057436,0.10311403521512946,-0.21009858509993615,-0.2254134229126014,-0.5665250164695714,0.6662703663747233,-0.39979709450412937,0.5686623672944493,0.5023726251779577,-1.0715096432310656,-0.22866313923335124,-0.48168752866603587,0.3777089644384782,-0.6501280212242283,-0.3375267953595429,-0.6538939616945318,0.4220611932098288,0.34908987077694564,-0.4820037028460996,-0.4345506944470107,-0.41218389242447606,-0.5119200449711622,-0.02957702996218607,-0.29661923830951165,0.6828282678409742,1.1725779776922187,-0.6377290278636735,-0.4218470292020283,-0.342729248715687,-0.12667677495481403,-0.08158910718357383,0.05041100248772268,-0.8563065234752738,0.19651909602981776,0.3381951396507716,-0.433459283849104,-0.6440109332236749,0.6408451862971015,1.2247949835845442,0.03422538484129866,-0.11848285446962997,-0.26771981896518054,-0.03727961764853463,-1.2643208177066256,-0.5048853948190407,0.005340526352433306,-0.8479076022361661,0.7167045069675807,-1.2958965048636961,0.31996771088616455],0.15622855404480374,-0.9757841704635983,-0.5157158684275801,-1.1907000293198402,-0.6072104076291396,-0.6412655192598826,-0.07528830426065553,-1.2927118870107903,-0.13104271003836185,-0.4756179993541606,0.4344184571398734,-0.15513498389406793,-0.14958756596745998,0.45635206279533935,-0.2751663420698604,0.633660680025742,1.0247747326835015,-0.686717081514659,-0.5821265111048536,0.7297278796231913,0.1703960403691211,0.17289644551786304,-0.33023744168375335,0.47983195692773417,0.06893850008492014,-0.35028190522523306,1.0041800850607516,-1.4862970650066067,-0.6078976070559642,-0.164676755545272,0.47928403762948163,0.4702158695159667,-0.5031119455752349,-0.18769643991108764,-0.009464525919267709,0.8212339978969131,0.032708207278317636,-0.48462877924058634,0.5726186266262449,-0.07393122231106845,-0.6599497960639374,-0.1757094378048122,1.0780541453985817,-0.3910046450947163,-0.25079042642793625,-0.3711919538168682,-0.5420412043346471,0.2503755195070036,-0.03079167639774871,-0.1949230439501491,-1.1925639212274162,0.04901165404220019,0.38216362760194844,-0.2794083533815536,0.010775999780601548,-0.8587935900594722,-0.36206117924479386,-0.04295911764276182,0.41479112803963714,-0.22585463875618253,-0.43272310576638007,-0.36031369379514266,-0.04468748296753852,-0.55136001608796,0.4522840959913452,-0.26415829989282136,-0.5522574621731998,0.6289571679590547,-0.5184779256422206,0.8885735622316299,-0.025586155316193102,0.5100580517322096,0.15235263998182474,-0.4622683134839728,-0.25923338824327563,-0.4865212381237513,0.7571655109541761,-0.2546550781766107,0.7204369264173813,-0.711125862228995,-1.3634163178859537,0.33468789877429395,0.3934167084274864,0.06768225317434569,-0.028694700157688022,-0.01967665185028741,0.3001204962793735,-0.16521069141385933,0.18833998043338918,-0.7329966020325415,0.9106130026854558,0.4094042878597303,0.1618051594161797,-0.11039056276863612,-0.3009164649284123,0.3498918516951587,0.28664493202507046,-0.8741453869015323,0.43742722975664744,-0.24421256519939,0.18274943495047832,-0.3313609096214748,-0.21614447910751952,-0.37797542512119453,-0.37861637496724876,-0.7994989554671018,0.43192386512235664,0.7141882954868605,0.006803899552562124,-1.186951136727854,-0.4361419892795896,-0.41660772077741903,0.4519615041586253,0.015761452017061053,0.7762658046116526,0.2558125355485117,0.45805596937599147,0.6180706965831515,-0.201130090584882,0.24239004092227956,-0.34027980079962045,-0.7856921962085798,0.13935824421191015,-0.5063952981232284,0.27832950032076653,-0.033999805134976725,-1.1382599849500474,-0.49159366290943185,-0.4075333736387203,0.13245480996818154,-0.15381054726095172,1.108736124470828,0.5448869515918048,-0.34713294250434346,-1.0518815765106986,0.16753460280480525,-0.5826130339732529,0.3196511828513212,-0.3821703708147498,-0.34636308208966277,0.06351279836252666,-0.7742803622584173,-0.4229483680302896,0.6801546952155513,-0.08458932579150895,0.8366190891371144,-0.4564122436831498,0.439233780066539,-0.8639277468252143,-0.03733398274280991,0.04532546787253891,-0.36702860448069885,0.14888611032726878,-0.4886665786881684,-0.3563788733304824,0.28693359917496236,-0.6675670929976473,-0.3886520577359802,-0.006353816802450533,0.08205590593682496,-1.2078704669218514,-0.7429410492295933,-0.16295823072561652,0.6890702594417807,-0.73616114842306,0.17728427900386504,0.23252834173012826,-1.6575845397587492,-0.26883199151043324,-0.48613293216158654,-0.31097854867422897,-1.173117336252637,-0.3104527637346131,0.632696244115463,-0.36280790270679,1.3941164904093328,-0.449294754488071,-0.9916629259478303,0.12212070271958479,-0.19717579775297514,-0.2939668879044128,-0.012761612874783541,-0.8391677397842752,-0.588907978316798,-0.8288353141433258,-0.6221826611886714,-0.5265366323852211,-0.7441388113358989,0.17720930207206723,0.5730950257765562,-1.4331720082360477,-0.1552389615331826,-0.6632437157838338,-0.3643958550101541,-0.8177411071343849,0.2489817348073905,0.1403332811206134,-0.6429654472468868,0.16070827984826258,-0.699874596555897,-0.2909902240733789,-0.35888949293181954,-0.30810901673077085,-0.6238748084157896,-0.2595191073339148,-0.45510720905167595,-0.3709400719861953,-0.06533348952262814,0.17285224805263893,-1.131235740846975,-0.2286193713942576,-0.40959970741706486,-0.2874388391658203,-0.3845540076812554,-0.3321742460752273,0.06088303734396568,-0.40916650000070204,-0.14595402165085994,-0.4635074461403128,-0.9121526867822056,-0.43374300558129597,0.4659100095545531,-1.0138789895541183,0.5776482626645879,-0.2539042761659151,-0.4772953801739659,-1.1180003964827059,0.4395151990303769,-0.9030531574544243,0.12868463299004265,-0.17763360688198981,-0.22180360783478054,-0.8746352254494416,0.26697724869689343,-0.7566317864286418,-0.41753233822179336,-0.1489177231746216,-0.2795759377030821,0.5265845540300578,0.7791766792553684,0.5878924772209732,0.6941363252868953,-0.020275377378697536,-0.5909530516125602,-0.4600280087886249,0.6137230495968395,0.3728734839449316,0.3584807627201881,-0.1008835582995304,0.9990780898960453,-0.049820673141482696,0.12822589108566632,-0.3304189315688145,0.5702257117984375,0.016773962248323088,-0.3452835646189803,0.311830200844456,-0.23136693389999097,0.05364744589084861,0.11940594638263803,-0.4863394441586182,-0.6082880947939653,0.9458955764219752,-0.6696121776886671,-0.5373218037752681,-0.5308913349795169,0.2594549877176159,-0.41605487476881103,0.24270490575011475,-0.19351411284582096,0.5301036404603842,0.11660792523974,0.5523089825046784,-0.43509033186260565,-0.3056652590719582,0.7281092394213978,-0.12977729133395025,-0.22172751169307064,0.5571327515969644,0.47456834200039427,-0.7191127449906488,0.4010407495797215,0.7787028255570335,0.6643809764023518,-0.6362397830984297,0.16838800848413576,0.21872250884534897,-0.15996058442808248,-0.48685316520268235,-0.4176496909721645,-0.8554901869471582,-0.6932792753807572,0.23513724287663573,-0.6929430785586136,0.0848765019215014,-0.8511576543163075,-0.7661438375271085,-0.5691738425729636,0.17690959741814022,0.39352603841580197,0.5702143933943155,0.06735534355454931,-0.9404784944533146,0.035582638881138745,0.07984384670019998,-0.5695662217676963,-1.0335082063959609,-0.316260032495287,0.21631153774388354,0.2168560271018397,-0.45315571865256604,0.9797259182418205,0.9280207163133034,1.4687742919248852,-0.39658878377418216,-0.41519468869539394,0.04216898393098008,-0.6360667622313348,-0.76940598224093,-0.30694164034351873,0.5011572173915924,-0.17854365702836325,0.1675078387642201,-0.7053117763062476,0.14736151146959245,-0.03631481699857396,0.03173126224855882,-0.09699722974357097,-4.629376153790816E-4,-1.0919505066393154,0.32779965492071367,-0.3075541397643439,0.26764881476356667,0.5773090173468967,1.1048913412225168,-0.26807852960376216,0.18600049683442466,0.1434241351862098,0.16324942862964822,0.2895695676863499,-1.2137924107676072,1.0578698405953564,0.19334737812782432,-0.31880539906387556,0.05424973999744022,-0.2650662934006182,0.1656048060484772,-0.7334423980723596,0.06666204515241371,-1.0449043617551,1.0818436834788956,0.02962314665400902,-0.7776645605980178,-0.46955867651467065,0.020057340000679123,-0.3770828947046989,-0.7948160010515264,0.12088680676637467,-0.6684126768158721,-0.8466414020309371,0.13297259106451959,-0.11402714960202447,-0.8091834402733249,-0.26648928513421766,0.047447493093237904,0.2880334230697555,0.1577420944792945,-0.279473082247,0.0736335723250302,1.2188546403627272,0.6802071357014142,-0.1139619599391671,0.20416397729522084,0.6944301823776491,0.7064868887009024,-0.3014663071149157,-0.3774735441826203,-0.5700418095507636,1.3699122389227163,0.7616514190857311,-0.38049741560290673,1.1402666617565753,-0.8238956711470588,-0.23402445523943866,-0.572818248735662,-0.44160086811520893,-0.2863003489128623,-0.5399220925808365,0.08068253630112861,0.6820447177676416,0.4084704056534902,-0.4821709819947529,0.1787034354644464,-0.5054052450304992,-0.8174058933511013,-0.5173774519697997,-1.1686619063068313],-0.09347127812062166,0.730102488737225,-0.41369045779222424,-0.12488253405451746,-1.4736728226043991,0.08909585211841739,0.30384795586355706,0.5597198303835736,-0.20795130249702293,0.0551589799527041,-0.6978224427278962,0.22752973865370843,0.07328336911491612,0.7657345073642307,0.874609142532096,8.53497106949752E-4,-0.6708980002749838,-0.6245830274985138,-0.02510405163020658,-1.0376460626739654,0.3607911112965968,-0.04818492981796166,-0.30169221426535636,-0.587332371031773,0.10179194969379382,0.36026539472907476,-0.08534250179187954,0.7230179646587775,0.1545348402086746,1.6933063256597407,-0.23913811436850643,-0.4078438895109462,-0.9858900913092435,0.09719056443833952,-1.7376804406410329,-0.6418696623032667,-0.2841560862889025,-0.2062605601508537,-0.04933216999145731,0.38346240623197225,-0.8596361404668917,0.5891404058421369,-0.3785666489570347,-0.4769800119283679,-0.5199738594150564,-0.49911813163614477,0.4483189220763855,-0.5810022444097577,5.202936509997732E-4,-1.6087949382241273,0.6082042360114883,-0.03137451958186383,-0.30546589662822254,-0.19321122039285393,-0.0674093915225815,-0.9635620637296357,0.040628112335327114,0.15289246372895707,-0.9826522445679127,0.014084458542002166,-0.25528013300439145,0.91356892947383,-1.293020532732643,0.007245973287234439,-0.19103200656564992,-0.4431374135203883,0.4073264233606188,-0.9949398468800139,0.10967508094062421,-0.6832231199066069,-0.023508834159577628,-0.27746850501766235,-0.43409167708378493,-0.2518027602574916,-0.9248921538538429,-0.892274514159297,0.28218436315935,0.3371910785937722,0.09154696088757844,0.6463199492524518,0.6261998647022343,0.20619064280993796,-1.187311853713454,-0.8493203099841323,-0.8087259602151244,-0.5722516814480203,-0.5419199208154392,-0.3961831209326401,0.3178125968016729,-0.025332923923998142,-0.24943433720881977,0.5940358090945629,-1.490146798702177,-0.505186939468449,-0.08378434873472382,-0.0468078247300983,0.6068438344964155,-0.27501872671644284,-0.7472016212269149,-0.6202631170556802,-0.5347712744400167,-0.5601748915229807,-1.0048516534446967,-0.15396479032861796,-0.77914140489027,-0.5980258434718638,-0.6989925733564069,-0.4774560135184807,-1.384352166785904,-0.45479727151070876,0.04199344928355218,-0.20078741364082417,0.5500289942865801,-0.4376271088492686,-0.6279790737400275,0.5402988528789394,-1.4392866893795173,0.5346529061308852,1.3223636957397973,-1.1504006967160194,-0.05283209763685836,0.38004920161492506,0.16052130544779575,0.21970526185010103,-0.1405807379797611,0.9268062142220673,0.563637272326031,-0.07337253772002161,0.761797789204261,-0.2480826401554803,-0.16815346674447912,-0.2581765138870553,-0.3678980749750466,0.7281388901981481,-0.4924224731855842,-0.921917650881001,0.34804314431536904,-0.38130319161756754,-0.0022107850934358552,0.2985919375161697,0.0043520397210059444,-0.007863744196522898,-0.3231048450373872,-0.1544235224807899,-0.15404204196556207,-0.127404495313972,-0.46501068560470843,-0.373653062127881,-0.2840433876322321,-0.22470739659210773,-0.9409221370265648,-0.5729256208912437,0.020968751310182148,1.0973054905586457,-0.7465223733109888,0.7270047519264041,-0.006349989965780495,-0.24819699791479802,0.449064967008369,0.7159193090265135,-0.7950476562516318,-0.5630886863971646,-0.34578475425664906,1.1027763739474132,0.49349913438772763,-1.0462343092390043,1.0489147114075068,-0.22927443309520057,-0.700414835713556,-0.06851503178299989,-0.04651261784044706,-0.9474870635857021,0.9634544052500026,0.3550811075848495,0.17453367050232,0.19605026720106133,0.0560933013446554,-0.7848443192978573,0.3401134881739261,0.6672996103673651,-0.10488054851015417,-0.37967096685259566,0.7568612559484481,1.1376085290591755,0.7181584256548171,-0.17776946955904777,-0.12178729093562943,0.14101194388527583,-0.6246042620780083,0.02726111046184016,0.5791990219300773,-0.5442582027654714,-0.40780259013739184,0.6358716444958735,-0.5190994569803936,-1.4874110623516597,0.9063246417257577,0.48187793380645905,-1.3483588744951165,-0.6377723864957917,0.8147198431441836,-0.5129386571385508,-0.675453693687247,-0.6742150739942089,-0.5144615800883552,-0.34286474345535994,0.2446828221489925,0.577668826368388,-0.43475743791654947,0.6273443377545384,-0.3114134843780523,0.14565149326635318,0.6608469993210976,-0.9528602965551904,-0.4544735570247542,-0.029394212988642306,-0.19393753527223098,-0.6793104645309168,-0.26768096524690926,0.48870467759232167,-0.6700203123176816,-0.4068242769855045,-1.0006933485113767,0.6510281687000341,0.6890933977228616,0.6484082106100791,0.3812704890489348,1.5220739078406567,-0.6241818994820495,-0.6395798519804031,0.05782299204837081,-1.4739081913769052,-0.6964415601439056,-1.1413452002234172,-0.11055952372615845,-0.4296427864081614,0.5403001146939261,0.2154481136089992,-0.34967634946371834,0.37056442409795803,0.25492260428514446,0.3646248827336803,1.1940787607203234,-0.9073369040495903,-0.3124353213638275,0.6215642885087107,-1.0232397337108887,-1.0061398271781195,-0.6976597232293026,-0.39966520019597174,0.7998176074896068,1.5106934824797036,0.11445351868860244,-0.05534906185805741,-0.5344521891364791,-0.6023175691757265,-0.021466472888094976,-0.01508336323000312,1.2235275869875655,-0.35630942147893774,1.2140507074391662,-0.26001568967102534,-1.0290712154598742,-0.1296228304666305,1.0587244379230911,0.030121027319729567,-0.6118646380745805,-0.4563625873951855,-0.19092544425265917,-0.4012305285900851,-0.1949347133305395,1.8741761758141853,0.9909988147480825,-0.5373937353836257,-0.23238792196792218,-0.6022981415395879,0.7653005150934472,0.3850798793571151,-1.3629099707097876,0.1951841429034309,-0.7667645702680143,-0.7643748800242554,0.9916489864545946,-0.5271766425265112,0.2050403849543525,-0.08892751680407601,-0.37647136221001104,-1.7253134134834027,-1.0796884513826788,0.07740784996017071,0.05863951153234732,0.19935730653500905,0.4011922622324622,-1.0159079251418637,-0.19013468539482795,-0.8385098454118696,0.5270285684545061,-0.8405468526490332,0.44351504534229047,0.09457728651112478,1.4194692991093933,0.07391109232836515,1.6054356746397578,-0.7593920207741036,0.4471271129235669,0.38893577037117505,-0.04008710343867534,-0.5794241469999049,-0.4429089211649651,1.2159448495141965,-1.1045362920347337,-0.03940355539001585,-0.4075471293288643,-0.2732101136136659,-0.20066342036434698,0.04768956041798154,-0.6358273771286987,-0.14739586616768868,0.6289041179947293,-0.02824035024431887,-0.04613531480164303,-0.39825702030916194,-0.9376161216936904,-0.2243885616519495,0.08026171142272828,0.6451863869948503,-0.530377116399538,-0.688096039492914,-1.261538028268935,-0.2776815538395515,-0.21817951321613896,-1.7888237874931794,-0.8686766740603721,1.8737691493554942,0.5721498927551155,0.30604242236021584,-0.5868763215234798,0.18181875158260463,0.9825949577713758,-0.5093675053328871,0.9989397421636171,0.19973671291809109,0.6248144119613174,-1.2997965646234588,0.9550405957588801,-0.09941033699942001,0.11417051980950617,0.6690608445868721,-0.1946526547158078,-0.19916213745303174,0.5200859144604512,-0.7965643652858665,-0.44821372063821036,-1.7124890893338274,-0.5563023195439671,-0.6703989365067998,-1.2496910120825935,0.6507974588407757,-0.7577302939214094,-0.33380159813979976,0.1867170618950049,0.29947914516515994,0.08314475748581181,-0.0499341832622054,0.40909155076540565,-0.3481496904840905,0.26136262733255305,0.3328774367313586,0.20330737651687328,-0.13988574104593474,-1.1849645037311831,-0.4630093968264009,0.4499948117479311,0.4890930022956309,-0.45849623510162846,-0.44000714894019266,-0.0648305844108371,-0.0512233822540884,-0.5316947674458478,0.6588006520436177,0.4151840123889562,-0.7134759435326924,-0.9461746785747016,-0.24021709940762753,0.5116845982057989,-1.1179154844190278,-0.26068010567324923,-0.3209824191765243,-0.22538664320556737,-0.43934924593148417,-0.008766749210402299,-0.36534683971204357,-0.19154118475964158,-0.2896338949907534,-0.8984201671169225,-0.4119498552548432,0.007517400868342158],-0.5654610559932916,1.4781149799476128,0.09833027546606911,-0.1735631339179907,0.2833941742721359,0.005314950914049263,-0.16103694690164538,-1.0989199595213088,-0.1007809878266638,-0.15646527123679363,-0.4254796853349946,-0.4078189935757772,-1.0613663900122465,-0.9129943969322606,-0.42382560080639264,-0.8222955543856115,0.553699953468975,-0.4732868899113318,-0.42936020392959223,0.2338168811642545,-0.16640507002699628,-0.7582164301394968,-1.2837554849355366,-0.7722052211115895,-1.3123569111220141,-0.49704451525731047,0.728644073402159,-0.7642933471874743,0.22479461091643735,-0.42434542316208146,-0.09811128932325348,0.3718075260417169,-0.04490305927101659,-0.6231814828160314,-0.20500072508826706,-0.3865880148554616,-0.7559075837583181,-0.42481419265450654,-1.4078343324488645,-0.8131947122176831,-1.2327160720614716,-0.5207357146797521,0.42247426504063573,0.5599827795644116,0.558794644771003,-0.5150660394945176,-0.12240757971531037,-0.693434334329089,0.19497323628656205,0.8608561255126512,0.3842578239630483,-0.11246834508007907,-0.4663091760935625,-0.2098515030988686,-0.6471206384665588,0.9391913419837348,-1.6446126590071743,-1.2840681831002625,-0.7062160244816733,0.30805740901869133,-0.858498608033022,-0.044032825019453825,0.01907219525077004,0.28475942750684174,-0.24169405218086742,-0.309242815548545,-0.5429457561727942,-0.6373854115989234,0.4386024042574986,-0.42641881419148964,-0.3778515228966566,0.9400563527641022,-1.6695794607497245,0.036436881367636044,-0.28322340423216974,-0.7766694473112523,-0.05807837304459682,-0.7547538108922351,-0.34046521124124934,-0.07204757454767818,-0.8000362528499687,0.09723953342606435,0.5687601574085647,0.16269312502520003,-0.3827754728636422,-0.012655771382779527,-0.42936919059921136,-0.7026053144368116,-0.2588436543525259,-0.4948953942293998,-0.4297811327607867,-0.5438611148442895,-0.7617353712653884,-0.29107829972391264,-0.1705138844218672,-0.9229543565139819,-0.33733926014995375,-0.3210670024959801,-0.3498809926556246,-1.5868315190440756,-0.33405638918116265,-0.1649389525311432,-0.15857673558872679,0.06590678410795128,-0.8861774416357111,-0.11043665678848986,-0.6169606549021143,-0.1921926670042338,-0.2546981512398995,-1.2687907753770575,-1.4285350904380163,-0.09509782752865238,-1.2957682930972667,-0.29477823682838605,-0.1217740239203941,0.9728469927105396,0.2844375771357426,-0.38813218847691505,-0.7028741221855247,-0.9215981410055968,-0.7302130463728237,-0.9616822167534131,-0.47907421471649764,-0.22139482635956467,0.09661021242906877,-0.026480109191926796,-0.4484419974769208,-0.4791188828520583,-0.3571240552362226,-0.4526847401236151,0.020430704583425354,-0.512250328151922,-1.0158919227539267,-0.8982704698842875,1.3523718747325832,0.5022880351533578,-0.311794108664197,0.9570617646172472,-0.1937453476188944,0.022916772586296232,0.12756387444430112,0.22362150331141564,0.37607903368126955,-0.9772315171110435,0.2222871001162983,-0.002727918053049583,0.10261717558482465,-0.9008285328351767,-0.6715754490128526,0.40130072706953845,-1.575588693053713,-0.3607456523370342,-0.6352626912994022,0.6989480153155789,0.44460884541281764,-0.1200219003118497,1.5992721164617878,0.4094917746130191,-0.29047828170253986,-0.5280541310167809,-0.22283152152897612,-0.022209521916924862,0.9298021394590623,0.7704937334512268,-0.32094096523827687,-0.4480187638592735,0.498086128107411,1.1085116606053003,-0.5787327595653841,-0.38319272656798614,-1.0644173384783826,0.358580178508039,-1.4351324579692857,-0.21818301780678392,-1.1305959423696255,-0.5453233842873537,0.21395404780594104,-0.6041780740955731,-0.914709539349145,0.09287742589890723,-0.05968439929903424,0.8302773365893714,-1.4722072998768896,1.1754525841572443,0.7523269988476912,-0.19736849517984487,-0.5765241588411071,-0.1570465211693663,-0.3376168984682844,0.2186115268058812,0.06257131181401879,0.004433490443057659,-0.332936963932524,0.23597740091058597,0.61158354021112,-0.5611936734145293,-1.4042336351790548,-0.5854487059618164,0.3563965590175531,-0.9084040255251539,-0.34996472409542295,0.8782479493005014,0.059896973556861965,-0.34320582008643824,0.44627744803692776,-0.9105012994600454,0.5191931560650548,-0.7565764255014974,0.16841352038276733,-0.4814831332911462,-0.1262011034442666,-1.289989087800517,0.28931410757286774,-0.08972221231518943,-0.7407074400430297,-0.08562101292582565,-0.6847885644725337,-0.5372889117901,-0.49257437014019007,-0.21051666983169595,0.1326509330514847,-0.5670043174036582,0.3597321473674937,0.6900212598925107,0.06876472758763896,-0.12855134840205473,-1.1602960304962882,0.8856812699017379,0.1960291848910848,1.2212052683196537,-1.2119537960416187,-0.8370539910074064,0.3501214250146994,-1.1741016147833068,-0.9878606179704551,-0.15849696000991884,0.13126252115765516,-0.27450254043892797,-0.08825553499324354,1.2259666895753645,-0.6088313882018974,-1.093230923240197,-0.2693325828062847,-0.43945521496826817,-1.1886672312232511,-0.9148801818925797,0.5703775002264967,-1.2677831113292006,0.03037534588044903,-0.7684092153453187,-0.5214159299972563,-0.38762026696040186,-0.5454880305032366,-0.9476470399127315,-0.9428017367542874,-0.9683297508516641,0.7605655608908971,-0.22316085338317643,-0.6567939565778722,0.30264481989385866,-0.16533837615944463,1.3899013069788058,-0.8677875798937041,1.5601385043151492,-1.0886301477741125,0.20512892466866345,-0.22830280324392574,1.172209938867763,0.5153788587928302,-1.5874496323967195,-0.3627126540498656,-1.1767117390930952,1.7337716833978458,0.3206013433214744,0.2848464548735102,-0.09047830250885804,-0.42338874319248904,0.054771885330182256,0.04194982759908751,0.38953280686522074,0.6711196102991406,0.17410952721279602,-0.7206053507272765,-0.9305502673829541,-0.6414113185325285,-1.5401203032313628,1.2426901205869214,0.8867536616478681,-0.9691200998226621,-0.33277406138563986,-0.07535088320126046,-1.3021658034659427,-0.9128080477198374,1.591512226592326,-0.33792690322490393,0.23588266541260283,-1.2619841536753273,-1.3292600955570415,-0.11903871725883142,-0.13411734597133126,-0.8882160981608247,-0.4017927912692898,-1.3992447739499467,-0.612357569773944,-0.2624290463274007,0.9020076114422028,-0.5675905952883162,0.08143461952029829,-0.7204892155413816,-0.6322157921294373,-0.6823530545865825,-0.5380574095801676,-0.9546139012097999,-0.8825002428169637,-0.19505067611746718,-1.0098343767334073,-0.5261504926355023,-0.7749123244837808,-0.8610945219333339,0.8021724885259488,1.0087440136933716,-0.9424780153263809,0.32325536610634886,0.2648629584584782,-0.17371118290703252,-0.5547626874953233,-0.14785080391249752,1.0059560267727343,0.1248684082448041,-1.6991298600464981,-0.7475712124338603,1.363740868638471,-0.9072785261815103,-0.48746485938306033,0.06881074726840809,-0.4774366939536166,-0.10301016082506785,-0.44819668564198617,-0.4009096240411809,-0.4744838045250626,-0.09058201039400894,-0.4015961113110682,-0.3754643060485105,0.3047983610354297,-0.3487899466430978,-0.18082412942690085,-1.213993521729947,-0.7341996188801861,-0.39867671919811404,0.0998742765370121,1.2426160814402372,-0.7369947408594366,-0.8493495681902159,1.568691116755873,-0.06776192825300661,-0.4757601905426335,0.2934111795452843,0.07259084726515468,0.7805202118632584,-0.10168256353328622,-0.33590749783194507,0.47805792831038685,1.07570613758201,-1.4502519962859495,-0.670532019395987,-0.0063220082855900885,0.08052674388499068,-0.3128439349782969,-0.5798385574915109,-0.353140887544458,0.7636244280131342,-0.10596212451959909,-0.15974824376980828,-1.0517998103570867,-0.2902068580048686,0.30645883381428246,-0.40558484260385014,-1.467241671239397,-0.3682454351984531,-0.26178897714498445,-1.3123024556006697,-0.7215350682356546,-0.643779246479295,1.141128999609707,-0.6744208424198981,-0.09577292517233674,-0.42845784008431737,0.7488137350034398,0.4196365310035021,0.2599679608440698,-0.20369476743643844,0.04732884417461541,0.0377343082471216,-0.15251948406396706,-0.0436045098071314,-1.1218374160985654,0.3256804611382479],-0.07163447742907623,-0.14813738480477184,-0.7010075855762026,0.17320022396925266,-0.46706769345479177,0.5106044957578747,0.07767132980868453,-0.6660677957002981,0.3611097524939026,-0.21852879476384587,0.2910577875990794,0.4626874765224475,-0.322456125145636,-0.024306011937497683,-2.05326292964353,-1.030426716301489,-0.23029860853050568,-0.07096692250295869,-0.7513592544616757,0.2501128154819878,-1.6267927305905707,-0.14285668101463123,0.017237227374269123,-0.024677694869489054,-0.8594655012064216,-0.7835511077168423,0.3034934249352122,-0.08801515300726805,-0.5353025726182903,-0.11974178128483598,-0.9263223733862819,-0.32947483672778266,-0.7985083790350594,0.4381912823537817,-0.4274280960354014,-0.40452848184524687,-0.24771474146974298,0.01100684352474867,0.23582643099906472,0.8006768201240322,-0.9902146361775754,-0.45179153160900654,-0.42096030146131946,-0.5656247326264134,-0.19311190323230126,0.5856388711209786,-0.7069029795738939,0.4089497769055708,0.4090192129060837,-0.5437775741307921,-0.16150735087037035,1.5503874927133148,-0.036967460464472836,-0.3989485888821655,0.171646763946557,0.4258177203597753,0.2536980037737654,0.3823249540282875,-1.1481245958138835,-0.7916278766567048,-0.8659405083242254,-0.7784304892882391,0.44299986444329903,0.8201543353647662,-0.3631967590683811,-0.75978498129789,0.5031086543379388,0.5437487854524437,0.4332740382835258,-0.37297534432266916,1.01176223120651,-0.3881176689843372,-0.9508941470114595,-0.7475165729207022,0.34060334819269916,0.3909844869362116,-0.3115189752196069,-0.6219726387189238,-0.2062941857667191,-1.4853076068203863,-0.310135722996543,0.6896307518791228,0.9318314877328816,-0.44781006096088677,0.9373441565301386,0.8661919938018887,-2.0253164177195746,-0.5118328790767946,-0.45448050566596504,-1.858173854433255,-0.3153017909334527,-1.0783664387610488,0.3789108099367089,-0.13138527764828972,0.25870811901549046,-0.21704470288229963,0.3736081916002597,0.887344160500392,-0.2638422165071668,1.5034495170250344,-0.2090415455078126,0.16223022715473873,-0.7653002288563152,-1.2121373659122339,-0.4733820512683163,-0.398521798715421,-0.7914320598201746,0.46865489234324975,0.38620725403272865,-1.0391416787393117,-0.17012825979811902,0.7547219315277002,0.581931835773286,-0.4616017921244857,-0.1427845399700332,-0.12016243090511537,-0.013684558963442813,0.7959812446492672,-1.1324981477495046,0.22884428752483127,-0.48675864016323295,0.05139229871167041,0.24492604046729902,-0.8790627939534237,0.46589462991139585,-1.059939805821148,-1.9549334760858703,-0.4448951656368604,1.3651664277875855,-0.9734172865220193,-0.24549002831093394,0.05371174787635823,0.10033771825756059,0.04108765979021549,-0.18566290615898132,0.48038577196895754,-0.8253963935699182,-0.026760914508442316,-0.37600832504332116,0.6208410015761758,-0.7326192465846144,-1.1291234824864649,-0.2623869067654433,0.014472926577696313,0.05060101525414583,0.33382540079548084,0.13519993104708664,-1.148705060593556,-0.43847522108309284,0.42461622397149446,0.8832314303431418,-0.6472724418894763,0.1123398906892312,-1.294948549296659,-0.5417334994870014,0.02090406803638513,-0.7649699571210095,0.12856777024433472,-0.28614185269114434,-0.0667550178746438,-0.3034834150002925,0.39526341748262855,-0.5682244761469737,-0.6476398251655572,0.8169242347517951,-0.5439448937610653,-1.2304540010973897,0.07417591806441556,-0.3813915093532322,0.5255144419731241,-0.6792045544051829,-0.5666780474880396,-0.022995698523635432,0.34680491158654725,1.2320830460536234,0.03445523028295728,-0.8278456743384432,-0.4315598711560395,0.7255886775563007,-0.49668984194181154,0.7311461404170568,-0.31446396632665996,0.14577523163155934,-0.15834895827085296,-0.5672101294109068,-0.6056070428521048,0.757342721279509,-1.526797078822245,0.07073220671309717,-0.6477220210302055,-1.0742087651690182,-0.804208005253447,-0.3162402738674154,-0.2223609420700606,-0.3969234482220727,0.14883189447130463,0.15246161582982462,0.2108862044850501,0.21324754318026387,0.029915982424476153,0.47002145579656324,0.09724455239495816,-0.5577574867876647,-1.4051308823790596,0.1317117368203998,-0.42620977009155353,-0.4574383834479621,1.0539700799492193,-0.12357788203706883,-0.5271246673735297,0.4389475089721166,-0.24293813733273797,-0.11820128017290474,-1.39811226302188,-0.38612282648656115,-1.055898530476491,-0.4265438670841712,-1.3871046849907591,0.36052516626400727,1.760979637398988,-0.31867778507368144,0.9595767444906685,-0.946757360304633,-0.04495483059906603,-0.9328267133207758,0.379310026560858,0.30145017697539433,-0.6356751198343092,0.6911967664337908,-0.004125204324375874,-0.028384968357737263,0.4790428453343299,-0.3187427342068177,-0.5310365106701764,0.18071358423768835,0.261635555326608,0.6280156339801518,-0.36063304964321824,-0.10217097400393073,-1.238439123750442,-0.363781005255445,-0.5758177057070843,-0.32594386729621044,0.2302486066654314,0.1619159981276121,-0.4544463831035822,0.36310106838852574,0.4147291288192225,0.19305580830996108,1.2006879989744086,0.26822066940986733,-0.3364569748042949,-0.04739943375002219,0.15312703204179295,0.8630189497024428,0.8942376207627927,0.11358389034604623,0.5964009228867367,-0.09805687421377547,0.5494128725125893,0.8402156656407104,-0.33037642663516215,0.9499163803723595,0.5417126126469244,-1.2484195136662328,1.233076780274839,0.5549886659517421,-0.3981584355659614,-1.5363143707628153,0.8272165569847654,0.22731200862298304,-0.5758888043310677,0.13057675731484997,0.05521587568172182,0.3031256516713161,0.10470195938327957,-0.9377783519822831,-1.064893912530546,-0.5143475038158978,-0.08334875122353587,-0.46817643644854584,-0.5265265458199703,-0.4451895077507187,1.4494172597114283,0.17992174192134475,-0.03612292378607765,0.658775815893155,-0.6612052216814922,0.6968540661479237,0.1258483523618314,0.8826457787776006,-0.22648945265752204,-1.3211743582412725,-0.27116169602494244,0.4699251862685212,0.33646275666389946,-0.9269569676716976,0.9803275342420241,0.18982351937873676,-0.001857330855140642,-0.14120421799350594,-0.29417406174355093,0.32850916462530827,0.4781903727324358,0.746111375460365,-0.7510305795429519,-0.7740911024123427,0.4424694425942449,-0.6535252788435081,0.5537960297895268,-0.18801217295168776,-0.0236334333018902,-0.4465068391235087,0.060722436663419706,-0.1405524291340968,0.08339736889240044,-0.21947682814970862,1.168202306274758,0.07169478552007673,-0.26601636657609934,0.0886193967325991,-0.8095395759264618,0.1320978591689424,-0.617692171776086,-0.3531031160941589,-0.3254036692279629,0.8842665052221641,-1.1753819349650094,-0.1598290450317461,0.20596738677101253,-0.12500822416214696,-0.1839627926892727,0.6084883327957336,-0.28625014118109876,0.6564177432464365,0.11818690099305706,-0.4244342306179531,-0.5569348537294594,-0.3443480911299377,0.480845948599038,-0.22643941029855338,-2.0115528117503736,-0.5534634219211082,0.696997325702781,-0.16767477436218267,-0.3310499602028976,0.8184524140137599,0.48007693608534496,-0.19817615697183222,-0.7457641270201162,-1.1266647550983042,-0.727121814311159,1.2187908399666456,0.19444574194210443,0.3791511956618633,0.2000076911058191,-0.20124987964162527,-0.35417358430149465,-1.4091925454421732,-0.0028511664484286705,-0.38822515545550473,-0.42983079389079953,-0.3474350992392457,-0.42771546155085627,-1.5935710840024258,0.22164011852366086,-0.4329830682083933,-0.15860170457326153,-0.34088765472731464,0.14734049152527143,2.116215020645852,-0.9724653681467871,-0.694096222643896,-0.4513161726242758,-0.1363489137932281,-0.015768998404550066,-0.2662194019669835,-1.0188742956369101,0.46882894159784155,0.8415115782221726,-0.6889266985728609,0.5040217345107564,-0.30529041609668245,-0.12163838809070113,-0.3245919507625654,1.0647556773560574,-0.23619576810696052,-0.5781403768763084,-1.0341331873707278,0.9709510995662357,-0.06210506375559685,-0.037400550361534175,0.6384395267899232,0.32982312035965716,-1.4405952365300059,-0.2614136713179245,-0.8567737858986493],0.29999566522763155,-0.8907235568289446,-0.15247140076676638,-0.4542539579245989,-0.021481966774718926,-0.41678247596963675,-0.27859848851250857,0.7762128749613856,-0.40500255705887017,1.9138108472604731,-0.5049163804729514,-0.4928976740958625,0.4787411132426309,-0.24054857445997407,-0.4659000887169621,-0.5305976182521337,0.0056911266020486,0.5643351543764874,-0.7368339290450397,0.7095805106237666,0.6671815051767858,-0.1388371093160147,-0.999753883527374,-0.7555316000325208,0.5586033111151645,0.26496771093432214,-0.9119169516153324,0.3479284483652842,-0.15726076472630304,-0.7574501597211821,-0.08931820898546898,-0.7024028034236821,0.279358665021172,-0.2843869763197462,-0.0766531268404319,-0.6187625058819002,0.14368466327467708,-0.579395269104689,0.5606463221178211,0.15499022952483657,0.5709054304477684,-0.5850743808135694,-0.32612795981315706,-0.23584012879914296,-0.20950406703300561,0.266197230742943,0.3962898130808458,0.5220793725835267,0.09678448624777249,1.119851010577875,-0.7173100038452489,-0.09741668171652956,-0.5338583202786317,0.9888481779357782,-0.9650633777420639,0.4921189742688517,0.1749370909892087,-0.5682407293803351,1.0620327352192562,0.1845923098258973,-0.07036660073818174,-1.454672030519359,0.41275178039406135,-0.5745328090145648,0.38026853199790395,-0.6074092378707678,-0.024323608438468727,-1.4791139154709425,-0.24266591877144414,0.0905651946226341,-1.0385685846215589,-0.8382827588139272,-0.2926004888397164,0.45610354304682055,0.3045308750135388,-0.32385862824506095,-1.140546746094374,-0.14436442628857724,0.17823625827325637,0.9164171151704977,0.6034999092240528,0.004068878749230747,-0.7935581519264546,0.3634861623596965,0.32731897217318884,0.5601187380909507,-0.053394723826116285,-0.6170669400437768,0.8453632258871092,-0.07377504016997646,0.5059384764843822,-0.5761835470261454,1.224386569827809,1.6391358167724355,0.2496219465649579,-0.5063785040019894,-1.6731947552513742,-0.25689035436644864,0.228460120420852,0.6618582196690385,0.4349105481043495,0.48617282054974464,-0.9662583287977828,-0.9364781777744282,-0.527815582651652,0.27181381029549573,-0.32055051624637815,-0.021840102846482717,0.5457557884889707,0.7900397880403714,-0.8288518756042533,-0.33454890317748043,0.3387969134961595,-0.4218457815786349,-0.44412125241329503,-1.2614052546159107,0.014933451791012936,-0.1758433524582727,0.07907556186899029,0.7395168733802487,-1.313885565556387,-1.0808489892361948,1.0058133405429346,0.25418223071322216,-0.8084695175675541,-1.1908743842707075,0.28500963956697606,-0.4998563088031387,0.09720913230215283,-0.33813022186462355,-0.07368432645330192,0.33604213526521204,0.9814854317582901,0.05195770827690276,-1.8212848962856183,-1.1307695112581504,-0.7064330525809157,-0.28628396318780724,-0.1747705869955622,-0.8131299183865986,-0.22441400760311236,1.3989805249722964,-0.5066118693593807,0.5199760915404764,-0.24002447071911945,-0.15141413000649434,0.05946133420278658,0.9897687627724403,0.545297366068017,-0.10597198614990733,-1.6116829082013202,-0.9077356779180626,-0.813520828217161,0.5497609662808441,0.3072197607899079,0.002006333004602316,-1.8228578073759645,-0.4602622065438085,-0.11279724705541513,0.5945661803820209,-0.10896422033130566,0.08574011316181314,-0.7725379436157658,-0.8139307541231198,-0.24952752623541302,0.03571705335849479,-1.1025733319396949,-0.8182493650311762,0.21210149853288332,-0.4461891393621911,0.3786035631028469,0.44573532598065513,-0.8989489173576326,0.07128699211988165,-0.1794070385527705,-0.5864900911036598,-0.09828692655019289,0.22781333426620803,0.5140894577556844,-0.09389490055990452,-0.7580114190514339,-0.40834796885019803,-0.4313863679301601,-0.7965520260903913,0.8101020572805058,1.2353821443422297,-0.4919204103551584,0.5403869267399367,0.0532404056488191,-0.9485441950344518,-0.9435901533738371,-0.3033571684582217,-0.5330015197232353,-0.4301721876646161,-1.0629077196505092,0.858338371637258,-0.16085858278940593,-0.5152851827149393,-0.13667052339081026,0.9344758985527329,0.28258036828702715,1.0624076190868608,-1.0351129833486388,-0.17469727097200713,0.0322119089747855,-0.7937145331881732,-0.49055577919085896,0.21763981489591172,-0.1659031812385883,-1.3738745771449843,-0.14603540861429726,-1.1269692196915413,-0.3851127933606248,0.33120344263615115,-1.1216727031829448,0.12571409006671094,0.18724959860479734,0.4754044421940789,-0.5085856306558788,-0.3622381674355981,-0.17490550871513094,-0.4898505730643116,0.5706613215245143,-0.28800923936539685,1.5008352039242632,-0.3587938508117628,-1.704785036860092,-0.8163770111899883,-0.32606896160482074,0.22713054599644092,0.9172281006285535,-0.3141451771181717,-0.38938651524111145,-0.056092183395193326,0.912097770934066,0.7799736619047333,-0.2330265613293881,0.6733756182868327,0.2913646217972814,0.9324491539275858,0.8681904643471723,-0.33191150293234317,0.07505785577788933,-1.0311026057563917,0.2327833388808442,-0.17776034551076547,0.21869009559076383,-0.5251923493639714,0.3933887235131984,0.5473192118630674,-0.6332280907054794,-0.4988569818744238,-0.4777424200201838,-0.11029190869147915,1.3947902559562984,-0.4476472286537452,1.3931976664502206,-0.3695670857527874,-1.0549980087555273,-1.0773035459728326,-0.12843715244892062,-1.3379543351516892,-0.4556360753326629,0.31470596598748224,0.24003506234550917,0.4326946742724951,1.088118390915825,-1.4938655988924512,-0.2797077186189486,-0.8812371186488055,0.7921994126825853,0.12448014026807458,-2.394542452283813,0.32206351044899045,1.0902562458099518,0.04307444053506259,0.3744955033044401,-0.22473682880388746,-0.5311897356500295,-0.6140329053286098,0.11407989264952825,0.16470558326265852,-0.42824339400727673,0.9082535709191633,-0.09026656664582618,-0.26261656604581063,-0.37085747986318696,-0.7276162705374767,0.15479079020256495,-0.9015350916950889,-0.5094725592721125,-1.0219696756842287,-0.8251630979403385,0.6327180916345092,-0.5946691271228102,-1.6098519486078273,0.2198985797738314,1.353413214850053,-0.21815981406448057,0.11545004674213825,-0.6018919767610725,-1.3899246618334244,-0.4529377624196627,-1.5312297825570016,-1.2726888510629688,-0.31433128212095773,-1.609247328173044,0.05488737753548969,0.21714117750954554,-0.5725127831393724,-0.6016189294198586,-0.3729602014974487,-0.7957074992576963,-0.5247338222559276,0.8681119059803265,-0.6134327584258329,0.09610234313252508,-0.7896657848147985,-0.5496653339056682,0.047042906365389575,-0.746346069806932,0.7274096235704544,-0.31856961163859915,-0.16407761231281817,-0.8375659914083557,0.4562637472973935,-0.1947792443726719,-0.5176645220911605,0.20251629300519566,0.6378999003599043,0.5391083536700181,0.9483647547054107,-0.5988678919183629,0.8091867960237406,-0.3156363403419674,-0.08947019925368592,-1.0954068552442047,-0.2149718287631076,0.07187446263258428,0.026152647857610713,-0.2331608183496964,0.5546675268753946,0.4620153587386053,-0.4377520438252127,-0.19181546907922298,-0.37611880433916195,0.30276746933818355,-0.3497628801036616,0.5759659731965128,-0.7524014469285569,-0.699273466173409,-0.26141718615096216,-0.1794003554993651,0.5246473707879147,-1.140111137801138,0.7495677955098199,-0.3200114685261534,-0.14478088690040242,0.009706031954457989,-0.446196696816798,1.3757494733441407,-0.805396338834283,-0.17432031369542272,1.0892833674500328,-0.6478995523816281,-0.2239329172646659,0.395776922708027,-1.0524255034076273,-0.5183493309412239,-0.1165221295379027,-0.7515387215721901,-0.16029441416449153,-1.2592922547871581,0.5376844426538308,-0.2601246586275634,-0.49866868804741377,-0.2869714620251261,1.8098754501898306,-0.5663523784769752,-0.9801628947826928,0.21695956473198608,-0.4967998677668285,-0.4217212714433991,-0.8017834301830485,0.39581941887654465,-0.5567748185296458,-0.1355833509575395,0.4419155987030588,-0.2614016505334285,-0.6257002728277521,-0.27010290922069563,0.05229987420508589,0.0789038693116217,-0.5247790441615776,-1.4147342506227965,-0.9833459384521457,0.13549758157736838],-1.3616054749338444,0.6936955495535418,-0.8429973036085584,-0.5330249526924993,0.8710018010318886,-0.7633948096099503,-0.5608744686999264,-0.8441076692357764,0.5731767835033721,0.17510095513520088,-0.23627723557220723,-0.010606168940637406,-0.026451310812248444,0.10675557015029152,1.0905328502170908,-0.15435854081786993,-0.7120128592740337,0.4306178197290885,-1.0714092537852398,0.5817478738076898,0.255179942866752,0.9109872954953512,0.2045436352349679,-0.3373630950739558,-0.5065962434723685,0.4980401576377845,0.34957935208647334,-0.23554635080679756,0.0785740825013622,-0.6545876149550829,0.3511070696400753,-0.07250493826730886,0.8975366993878712,-0.4370612600185873,0.7680765622035746,-0.7978789526263536,-0.37579623086023956,0.22382692596695594,-1.163051958998112,0.6093503168583407,-0.21635565970819082,0.1778968938344106,-0.2918528218868381,0.6711071379542523,0.4547103044530572,-0.5646892963693745,0.05571742117440647,-0.22203931988892853,-0.22112738103329732,-0.13532632095335653,-0.22102130293829106,0.7865835305344884,0.3717019179577125,-0.37123945265587843,-0.3552292458064534,-0.7704200193540306,-0.2798138943474875,-0.6610694387623712,-0.03231882512135555,0.11766430887578276,-0.20879499976546656,-0.21931965123171143,-0.7396444374550987,0.4811510735318164,-0.44710244213307815,0.02767023775855393,-0.35945304843230835,-0.9959792321541581,0.33032009421696923,-0.057821985956668945,0.2580734376988155,1.1829212041244825,1.2914871535187107,-0.7377806983875499,-0.2689571156129601,-0.2493171285753801,-0.3818291234999984,-0.39794065881497315,-0.07691212354649456,-0.6270932673884656,-0.18649130242256912,-0.3438311113508498,-0.8537691723203046,0.32810933428262434,-1.4211824091806826,-0.30769887109641836,-0.23209766573689974,0.3503839936948005,-0.006053185694377118,0.6016155632570357,-0.34113691004058777,-0.4169779907963738,-0.7789502968484062,1.0347321297395506,-0.4326603373235223,-0.3473768717809522,-1.9069170304528356,-0.4380962949556119,-0.5435860338841415,0.6350364160953653,-0.6495150590296491,-0.15194652026839633,0.727786017302276,-0.014579344152182823,-0.18208966818929737,-0.234968738902601,-0.36953582442236943,-1.0214793582689767,-0.7327469661796651,0.8624436014166479,-0.04097039788730046,0.23541303270075678,-0.546082728014796,0.10095270039031508,0.14924130411920872,-1.1069694017044622,-1.2877172071864913,0.853738155803455,-0.6436829081595603,0.4120361202368161,-0.8143090237312938,-1.0614373193949558,-0.6085181019810716,0.4589322471795352,-0.6410892117451912,0.4681889431170793,0.9410098279237857,-0.5753280263129495,0.48079634019987494,0.12259862394142222,0.3328784149124287,-0.3193088010052531,-0.28187041822342856,-0.4901486569971135,0.41331841010220294,-0.6193614980557222,-0.4920237718566649,-0.8134600041100222,-0.301332979371067,-0.5490102036076621,0.12718616376168965,0.07915570380144717,0.19291922335238915,-0.7389526928353949,0.041741987288996786,-0.5531973973947287,-0.4876298637037128,0.6410767067887208,0.9371137905558966,-0.4606967446773996,-0.2180634808875381,-0.5950589689391121,-0.632392097570026,-0.9058937330265164,-0.03923137084224069,-0.8192541517079893,-0.0925308419698341,0.6725850660869772,-0.6439112894871427,-0.4595456573872402,1.1009759409564477,-0.6787849535902969,-1.1765870146527526,-0.9538797035632682,0.18152326842389271,0.07680165948954314,0.5177003081722369,-0.267380499842016,-1.965936765361313,-0.5007733257941613,-0.9097726253652639,-0.4150064913354459,-0.9818497824110994,-0.10313905927427701,-1.1310329560540433,1.0259530996387645,-0.8419275240849932,-1.442910399109875,-1.137539539827269,0.10914991769858744,-0.19790479911621597,0.4005069793150465,0.8593910609153887,-0.9201679507380948,-1.259201519490624,0.03578597876959501,-0.16383930269107533,0.21996529038731108,0.2958630059774424,0.08697406933868622,0.2127396587425898,-0.7300355206355127,0.46160382105023773,0.11830444459103816,0.03148960495188845,-0.46077568601565594,-0.5002098732133005,0.3414999469605966,-0.8894861877593995,-0.5533125396657331,-0.295572956353362,-1.8539494657646771,-0.06759752135726699,-1.391929405473056,0.35210826810081675,-0.10356344651579791,-0.4549243530467193,0.07615725128959973,0.31531739989722923,0.9099066942008722,0.33670004918371454,-0.7373496437625223,-0.6159943038766666,0.18492882415485612,0.3421127726522544,-0.4417825233310741,-0.02407345469218811,0.3098518400352709,-0.4767418055959599,-0.34149197486346194,0.23828542285391818,0.05413797531383268,0.8836101170801395,-0.29156212360078293,-0.03380826782598005,-0.4255081505157382,0.03916402463468945,-0.8099361527106738,-0.3015384999059968,-0.21585281133331433,-0.952540192615636,0.37806877359231855,0.0992750352198566,-0.37430818560317286,-0.7515326548602727,-0.4493711754266112,-0.06966242383463303,0.37308677043015764,-1.0269561397648495,-1.0648610825943947,-0.5347477576686057,-0.5347532821973475,-0.9622765591433504,-0.3968346354457169,0.17022120733964605,-0.5605209758118411,0.5911081639242819,0.6637052223049299,-0.10128311513305141,0.23531149731704887,0.33934461704624697,-1.0649295743068397,-0.17278283732035343,1.2838179542664274,-0.7335393259017837,0.7015412782979269,-1.1994125374116216,-0.5824163392754588,-0.5927184933095461,0.2294925779189905,-0.5648946844185313,-0.6557163516391808,0.4437367348500223,-0.08405333446879787,0.586150086529868,0.2098153071713033,-1.609840239164481,-0.17182218532102816,-0.18572318604680485,0.07842373720563704,-0.716934387836697,-0.7101005817903497,-1.238819708763687,-0.4489693843235103,-0.5775943910812584,0.08062693023319926,0.12756447157224535,0.059665259930114456,-0.15802701108161363,0.29075332588513675,0.32070107254681285,0.2937470435316095,-0.8260185972538616,0.30744230885863616,-0.3432272622704888,0.9358833260454027,-0.1535919579943336,0.08636916700691383,-0.40039041077516185,-0.813026310939707,-0.15607530373766335,0.13034543150188815,0.28218042004834776,-0.4149506667331847,-1.293933837561428,-0.33711443285677656,-0.2757037419097687,-1.3858074144251464,-0.9637341333256569,-0.04933687171593459,-0.7324485294779912,-0.4126266700129944,-0.6966684648305425,0.5794840515188278,-0.6662716729954938,-0.4950158111129533,0.45699691580704693,-0.34978101297434616,-0.8308551766362803,-0.037836628435886775,-0.9487482460932793,-0.22722228626813806,-0.4970813731062007,-0.42376970945133374,-0.2812260097886925,-0.0399246350410618,-0.14616609853636278,0.4497666605313058,0.07178755015500896,0.5426867388022351,0.24010557939772095,-0.13874028700617858,-0.2222220233381197,-0.952740839047177,-0.4514730741481597,-0.9069322446765086,0.26970323317279965,-0.565403788973292,0.2428693498871274,-0.35619215594647013,0.2990594225145376,-0.7770975752685504,-0.23958837995726237,-0.18205758188803478,-0.07567924863674466,-0.15777418043783387,1.0879479409232404,0.13325894934365431,0.3925350196212151,0.042041153618313294,-1.0764659265170082,0.6600491628986821,0.5690698878797732,1.1132938566124198,-0.8655254281716578,0.6250624928483166,-0.5654316286215164,-1.2804868744891875,-0.377586076386578,-0.2806925761890799,-0.6026531507002307,-0.08796405113642444,-0.2341015633238486,-0.9341361536336116,0.14928602892232778,-0.32370670131311763,-0.1844807655714206,-0.4493744806735038,-0.27214740738986376,-0.9265875323953225,-1.0995911914243757,0.27014298911261797,-0.6604568642086257,0.4092155616686019,0.6650052059451277,-0.7167634784376301,-0.1587629934978876,-0.27012483493043377,-0.2427410628725693,-0.3946963570773619,0.9177785591676854,-0.052811881966334025,-1.112550739860852,0.03197403178306755,-0.32964480437795524,-0.0625365230307259,-0.14096029444918165,0.02982109905977884,-0.07664223595783685,-0.24679131674867297,-0.4874357820266224,0.177858926048702,0.8323737321356359,-0.07187057488658066,-0.7322291703963235,0.7450759191209174,0.46366117861464873,-0.2831436733047622,0.2376651166002371,0.9118412229610618,0.10020600233466122,-0.0035228182145622044,0.34401737562966134,-0.2109941542114464,1.611367909235295,0.09564932576470017,0.10627583108926172],-0.7776519914350014,0.30287008664753867,0.940394336701468,-0.02178899857337775,0.4782051166677804,-0.510897276079482,-0.7965410134789941,0.44281892235815284,-0.9262121962353802,-0.1376810845191514,0.5877942378658918,0.29637240394515735,-0.42723157543311785,-0.5721531883112441,-1.5443574266374627,0.07012228389810038,-0.3639587774691902,1.315638240872492,0.20066446460641246,-1.5246779604282552,1.6195335564487618,-0.1146217362116435,1.425509264589632,0.2442230384089679,-0.16861015442937088,-0.07295842025513163,-0.39544634808307394,-0.5092780753473002,0.3139236951398508,-0.24122125129302976,0.21173374017072663,0.985301731811112,0.5882994889230252,-1.0350372579724516,-0.9353248653547175,0.894170904704008,-0.010254622446186887,-0.5577184468057289,0.29110777506078694,0.17949581948450996,0.41022981441092093,0.27517471107321384,-0.4263952231794058,-1.381482938673842,0.4429459015489264,-0.46018818159895697,-0.675616787482025,-0.6317689900020663,-1.1661881864318668,-0.5082637682321802,0.353989530319152,-0.39700110215292944,0.09700738686178739,0.40975084778407705,-0.0038270970289222077,-1.0876849718524826,0.3849933107421194,-0.5610276457757465,1.1350631104052593,-1.039630601186648,0.8501205871469151,-0.20131126658560886,-0.17823519941672783,-0.43135234593645955,-0.490418174027783,-0.06784328479254033,-0.4221234541611163,1.3014124969148493,-0.3843739443420462,-0.8185013539531039,0.0846371435614353,0.7267768841212873,1.2220281487778897,1.166341719188169,-0.06959108056336394,0.1336683321557397,-0.48399292240649944,-1.350581548006163,-0.1973682163876264,-0.6165728670765778,-0.5478538740862734,-0.24549029942716608,1.0602227927900978,-0.38162023825578045,0.18701516894180864,-0.44195574125120596,-0.16612611264608018,0.5685151468450985,-0.40617788708203045,0.3534279065077705,0.025180732718117348,0.12881496966634937,0.09056134922699033,0.2983418458292339,-0.5982683887201983,-0.6256404558856073,0.07966565719532616,-0.08557993294509637,-0.506635876831476,-1.6277571213814943,1.037189351993151,0.7671043689725923,0.0981435965383838,-0.34662047043663136,-0.6015391518921255,0.3233759074137002,0.10981126374187651,-0.7365384139178751,0.9080766341695948,-0.8450944221801906,-0.10040494866377801,-0.5626653505518071,-0.18048092946522473,-0.4533607197405617,-0.24003033334965954,-0.17224038412823736,-0.7458890301491513,-1.2436607969502118,-0.2694460666231558,0.5947034831855236,0.813803481602096,-0.2949746908821755,0.7916198835353612,0.12056121056732663,-0.9310673631484329,-0.6411245094178736,-0.7514016345973095,-0.25384119459983917,-0.7658463289313947,-0.2916311644931018,0.5876604634857244,-0.1390024345560929,-0.07283180537798756,-0.6952640726307587,-0.024582513554177964,0.194443930950001,0.4114777753241863,0.45001592493071046,-0.300746714143232,-0.27676774005926663,-0.6795992457835099,-0.6470179974945347,0.5962339430173894,-0.27802905615383905,-0.4452840751048976,-0.31694938740138107,0.8908702787341973,-0.02368092746595177,0.4774846443029578,-1.2355515457246775,1.2224217407081128,0.027633663551954103,0.15435479831094923,1.3571344369771465,0.8844902190610717,-0.3872135942932663,-0.6334998759241547,-0.35608645044617254,1.1411333432561332,0.14309439673274052,1.0443756680422145,0.9639972515608753,-0.1655438880270374,-0.347416853338068,1.015597028594114,0.12575784011563834,0.11220390779766942,0.046992491718996096,-0.43677691211398023,0.017419271657264306,0.9980236826462011,-1.0528759673572898,-0.19712740204387177,-0.7769694939645827,0.9832251883153872,-0.7705715212178205,-0.113423212922917,0.6054056901904299,-0.8996195060431326,1.0623007763804442,-0.6285795301235999,-0.46090689914812993,-0.1425089085901775,-0.5499624284978478,-1.2079269149263552,-1.366756883757987,-0.045325945760976975,-0.892146012813475,-0.21325200647186726,1.101818699535763,-0.73671726961131,0.4577461754480071,-0.019061446490505604,0.41291284340986256,-0.4569841250169687,-0.8295640913451503,0.39265528302606834,-1.0517024345031858,0.1850647540087432,-0.11492772552327715,-0.5627600943258352,-0.9811236689033469,1.3144057526521093,0.4430534919352746,-0.2654989675768235,-0.27105772421255125,-0.07171373898101253,-0.7172292672385892,-0.09635216845677178,0.7270143708700313,-0.17919081912696133,0.24651485448196694,-0.21758078138135267,0.5646094782772525,0.36197913253104064,-0.6782895952871227,-0.283868987858556,-0.5053419081074614,0.2816876708405666,-1.69572171839547,0.12158230198678191,-0.3506967435964287,0.13435420209205684,-0.7821478687247988,-1.0302401855226542,-0.15883246495616063,-0.25069468841835624,0.46168316439530305,-0.47838832011129345,-0.03168596337797472,0.16567848254765555,-1.3051611602562054,-0.05293371513720529,1.4453047488535677,0.2503673528548453,-0.175594333087156,-0.48030460714098777,0.26669978078339707,0.09196811919593931,-1.4483411404886284,0.10430597162432179,-0.3060366506414749,0.2473590950400746,-0.05151679927768236,-0.703779852395386,0.42326300281947893,-0.5873292318127605,-0.7677942461763714,-0.5753335057756914,1.069279816785069,-0.7960966173408468,0.7064567510579329,0.013851938760999202,0.06691909444870733,0.5465151173625589,-1.092840117889562,-0.5253903750860789,-0.5204770933019723,-0.14295860001869928,-0.6636192545401263,0.372021002389149,-0.29755639887707713,-0.11538979833835047,0.18682872450472887,-0.45037332758142895,0.4741284100199677,-1.1663318839575236,0.09211659894475283,-0.14546543338250734,0.9859573493099884,-0.5880565357254581,-1.216825745852817,-0.2677318044511966,0.4903532223855436,-0.3201922067132989,-0.33344433236278503,-0.6369087139010233,-0.6933728875532075,1.4545497126525395,-0.5109287326664034,-0.20654549214457557,-0.10986769564466885,0.21387115668925696,-0.5935635538059912,0.779300293832527,-0.9009241149082962,-0.13238619025426498,0.7586330607633865,-0.05090283088285316,0.9604410326485575,-0.5369783541206977,0.7821057908486714,-0.37729002557971103,-1.0222112402162238,0.5118352420692999,-0.5299860420244722,-1.2759768723372467,-0.24843872641365758,-0.1145529268750868,-0.6944549987404384,0.2719492969951034,1.0535018538311145,-0.3760426071859351,0.7836984019123244,-0.5635408698009474,-0.9725010049666212,0.09729865239674808,-0.13463402457041018,-0.3267179854375277,0.8327878146754721,-0.5823001862017467,1.3633865765914757,0.8501254522095204,0.2550050629520559,-0.8074062027584462,-0.3120311503539492,-0.12659598752456197,0.31736890811303003,0.38023049812004484,-0.32722021110604566,-0.38723366130847525,0.07417294323017716,-0.16069810581496635,-0.4794844038786409,-0.31618608984833163,-0.4796305690685534,-0.18448985688213904,0.6416850260216244,0.2649779933665449,0.7791172466380396,-0.4211130834366378,-1.2551786195443229,0.7892833932624238,-0.6873403193175768,-0.24296472726472637,-0.13721931224428233,-0.13964092321543933,1.3893758543165513,-0.36107192984090963,0.45147684373641006,-0.9150812480409463,0.0765408819465261,-0.23075363609445868,0.4492354575690011,0.4063811501778261,0.41991712830499184,0.2849211769902306,0.8479840654406519,-0.6832095158254043,1.3307631788320489,0.6148136123967246,0.2154699357724456,0.49587559585455815,-0.7308599436617949,0.14745999477529048,-0.5120703441080457,0.15925643358607086,0.12789536141081786,0.8530623021597967,0.16546440675813137,-0.265835230954649,-0.5444196174501137,0.4574974953345519,-0.217575443934355,-0.006873775717064791,-0.11559817840940544,0.18244409635889244,-0.24297417825597362,-0.22548694223490592,-0.9799044728738705,-0.3166314073718837,-0.28803748634193627,0.16495309582996567,1.3557741507942143,-0.8358362366761066,-1.2012901951057495,-0.09521158453850473,-0.533758207384072,-1.3723493485993912,-1.0876543109759078,-0.5746489370911999,-1.4291435200521276,-0.032352339570850576,-0.8063017445285395,0.08639751658220018,0.07010670012063366,-0.21113902135694096,-0.19114831357799308,-0.1931307431120298,-1.0027626954982565,-0.17301246447032578,0.07810032932160856,0.6940238891327646,-0.2384673297856708,0.07909241783551946,1.2315276873843746,-0.23756751928015737],-0.022909020360949422,-0.4743310398239772,-0.47804695715843487,-0.09216617464347975,-0.952709367000298,-0.009287894013618351,-0.2620967656229565,-0.7829224060295598,0.30133451229427055,-0.8963199653933346,-0.7565524451674537,-0.13372959796972045,-0.23816287979787806,0.439440675811904,-1.098773499450357,-0.6640626360580865,-1.0045981069009875,-0.957247915950554,1.1200514048621395,-0.08790739491960428,-0.6090220828157437,-0.9914756743985849,-0.02890274207928085,-0.756558897878315,-0.8209019301330923,-0.42730082900612953,-0.3972231079662607,-0.49561727073608375,0.29137633091221876,0.4727211152851104,0.630252214289656,-0.06336557386620206,-0.1343988908576182,0.1719034475287398,-0.5599123012066262,-0.6742656500659684,0.22015527141601923,0.729786432825337,-0.0041238601286856195,-0.5491335316345418,-0.7413275520969903,1.1600400569075584,-0.8297838232245853,0.21801793625216218,0.8220889522897843,-0.15230381754551633,-0.07068015645974672,-0.46962750708242523,0.441311808502056,-0.4919648200326479,0.005074964085553427,-0.19046466879676663,-0.8823076182328814,0.07143286312681706,-0.04559874930747079,-0.3696952821400993,-1.4730256413818863,-0.30629156564814036,0.815689579208428,0.2407288636959418,-0.12587800622649553,1.1592631585023545,-0.49992209859082,-0.39791360450989116,0.014649966766955342,-0.6866313910867184,0.11679820125062958,-1.2494301278201694,0.29505815841790406,-0.5409843916785091,0.6333150399345636,0.13529492824939804,-0.8807706943260407,-0.8425947389042168,-0.37609586232205644,-0.38334839777674895,-0.3085888068019275,1.6311173832597585,0.09101142458839806,-0.12797060153595566,-0.02132949639455682,0.2769181379227782,-1.553075975308633,-0.7686951762546221,7.097383082202156E-4,-0.40936420324534384,-0.47022438164485403,0.2631890960226119,-0.37738695647371523,-0.20543623481066164,-1.158070528248939,-0.07086549406303404,-0.6091552237378722,-0.8581717673222421,-0.4722478701201125,-0.1134855840126055,-0.1730619491957665,-0.4656424309828552,0.4610664653252951,1.0352306207658677,-0.712568681885492,-0.11968106411046298,0.07876714473698161,-0.5590054676145514,0.14461931772863454,-0.29503054096672965,0.007815160231918921,-0.4007217242880914,-0.7497615706844087,0.7315106944007853,1.6204650705155177,-0.41397122106988965,1.082795112828538,-0.17829682767213806,-0.9705857007992054,-0.7613515978396019,-0.39211172030779495,-0.9658727978207553,-1.135265114908243,0.6430295668986223,-1.9229830200807394,0.447114696524402,-1.4688274384694366,-0.39909607592726803,0.0027105669638514893,0.16253892202603482,-0.20975505755192253,0.8112876697458886,-0.637630091724295,0.31084059452582774,1.2781040808743676,-0.19055421754057295,0.04436040251260677,0.8854306801283657,-0.6056102276643262,-0.30694551435662965,-0.9503377320253693,-0.42730652702269084,-0.08538489675398006,-0.3103663639164021,-0.8482283935076875,0.04835269501674595,-0.36153766436389084,0.05321214374871489,-1.480519310370972,-0.8315227774252331,-0.1379613742436441,-0.46939379158416217,-1.9809073653643725,-0.5807478645362925,-0.19598919272438764,-0.6233145857076524,-0.1630908535875617,-1.454241102877453,0.6981225522423914,-0.6198750544117633,-0.9424308032742398,-0.5861222349408701,-0.4665860105994559,-0.7892892441254262,0.08676126069748007,-1.3845348369279904,-0.6080917784872097,0.28432704345215876,0.9159611965199306,0.2355460127122203,-0.24469089642733818,-0.497312293905537,-0.9085505812395069,-0.9831089239356383,-0.6112033621705585,-0.5973552127284475,-0.5474780867151126,0.1009221549617344,0.40994935800628746,-0.8665286019833673,-0.7375121798434111,0.530438128864463,0.277157291316435,-0.30345995608153703,-0.24710008673028094,-0.99756421698602,-0.17512733858614013,-0.07316433442110164,-1.0695577892123105,-0.7490979224544354,-0.1418601139292431,-0.7185785202166952,0.13067560684446156,-0.7899692716415392,0.2259215149029283,-0.3155820581217803,-0.32781803914212654,-0.4812053664212016,-0.537085051287842,0.6433702779126377,-1.240743492739246,-0.7952545783604148,0.05793438906412507,-0.14368462350335265,-1.4782533464086962,-1.398216522659853,-0.48845364357088716,-0.692633526570638,-0.023300130747599263,-0.4024284671413408,0.08279091126550121,0.41205941713446376,0.06557501409811474,-0.45605939118100697,-0.8655322947776493,0.08128080763916215,-1.0198174033716672,-0.3006123059339794,-1.243679890145614,0.5242470978458588,0.07881654412560005,-0.3257795600402375,0.31188039152958075,-1.2599728770566054,-0.6559185352399326,-0.6838779678405046,-0.0042964731633343975,-1.1880688024693855,-0.5875313284160865,-0.3728554754886062,-1.2415698551260168,-2.349820425072075,-0.5215129596478002,-0.6090544179808222,-0.0664313287097035,1.3913534753937107,-0.7514708883619069,-0.04897525310744476,0.10852002980207968,0.4016210616266195,-0.008102464327578513,-0.4835125391651492,0.7824586421280461,1.093625592655708,-1.5104110102547508,0.151962369192068,-0.2969307429853453,-0.008584212911394787,-1.1937620508938338,-0.6762238301650318,-1.6811547364860264,0.26985011732928205,-0.4043220593043845,-1.5312309471891938,-1.2262026197990255,-1.5613084740439649,-0.6185390381829893,0.23259161916380494,-1.3035843424834608,-0.573099640985148,-1.7309435713731405,-0.2312162967140833,-0.6628172273307802,0.480869653696184,0.03179752714364063,0.2011981584724776,-0.8005451986028262,0.566898497196379,-0.6082072495077547,-0.3282168639236297,-1.7226765340414363,-0.7566798401041007,-0.5190280721359849,0.11466433661164381,-1.0790175193771339,-1.9039213891505578,-0.46659057374282303,-0.9459210689141003,0.01723545654205834,-1.2626284662989957,-0.09100371753101898,0.22305026117907162,-0.5934046820541309,-0.7236400278129217,-0.8861099850154829,0.14820705905069692,-0.19007044521192265,0.5046976178622397,-0.29016436316129707,0.03152967875516242,-0.9447566404641854,-0.711134198787063,0.7833396318650167,0.10808405217419256,0.4431291751027326,1.2930098146149274,-0.15189257370568734,-1.1110975406434935,-0.48546819586830625,-0.84516298876003,-0.49198755080089646,-0.8035918357645239,0.5389399449466146,0.48430775599836273,-1.233385961864115,-0.826639702666181,-1.5369750090896765,-1.721322517201332,0.26176571755491046,0.5660710591308595,-0.6381786497235936,0.15777322789860382,-0.27610345170354333,-1.2443697357818628,-0.3903526661119756,-0.7155569513882846,-0.11017494981757299,0.06140555453043121,0.8906339079705325,0.3574098029915955,-0.3867885561257041,-0.324301533084747,-1.069328788708021,-1.2903696664328488,-0.37427344652181666,-0.5963011203693694,0.48357869843295015,-0.7390028579318086,-0.43397448320879606,0.8342607257329981,-0.2151613901057134,-0.6661235157503345,0.6975620848593808,-0.7202205958534738,-0.15743645105393678,-1.7929719762714036,0.45968226131566575,-0.8954001088132503,0.16143670940589705,-0.41754149366322646,-0.9434418716826752,-0.11420003550088283,-0.7293731071970964,0.23528543777979735,-0.5490600660275913,0.39621526449640393,-0.16381125955621606,-0.8639650804034079,-0.7684627648271574,0.5369478682329261,-0.08625486118126971,-0.39580033839046963,-0.7321217900120061,-0.12104193145446862,-1.7284581955202174,-0.08829960490229607,-0.01805641753536114,-1.1823303281169335,-0.2553553769232761,-0.19125805543011729,1.0281014401477233,0.1746105137536752,0.11340507467279086,-1.2468465643299182,0.3403472249991389,-0.5070567139002499,-0.430284425786116,-1.6886016922474854,0.0806377962349265,-0.7057712344188918,0.21171388126578108,-0.08607805845110715,0.02610554689745769,-0.0356488605591154,-0.27955098876502144,0.0342477618158554,-0.7670434535502023,-0.7245346427968985,0.719047534662254,0.12407052840206557,-0.4140027315509314,-0.39260004278404115,0.17710617768739015,-0.168955561085892,0.18793202970286488,-0.6393302635424807,-0.37948931125078056,-0.22698764023921933,-0.9085404481515463,-1.097323270248046,-1.12790600127568,-0.2705974952894189,-0.34318825190107677,-1.588623352220329,0.47210465775184224,-0.46856303699571217,-1.2125671666693558,1.1869184803058959,-1.3782093275459886,0.031148812895372534,-0.0278262698841155],0.48366440656820564,-0.7561073614663563,-0.20922742015389315,-0.16329334010053845,-0.2910735144690177,-0.24572557562126748,-0.2384417080656936,0.09970818163892141,-0.6356844814867132,-1.5536894786017608,0.40435009177029096,-0.6292350746274725,0.22233098662969009,-0.48669792755164215,-0.7373635834606312,-1.03851262315232,-0.5299806472136591,-1.2575146857928745,-0.5026802089778435,-0.41974807838202194,-1.1457314569483468,-1.0442564791795768,0.026975326759241046,0.9978263442297368,-0.2532930685008294,0.42611666155726546,0.009731616186998748,-0.5003176259949224,-0.685565116045469,-1.2692273840525745,0.13997798879525977,-0.7192877202703969,-0.13230287643979688,-0.02120246956389449,-0.5802097236547893,-0.900549183833769,-0.09290909225162064,0.809733298648224,-0.5294054081452507,-1.7691608411791533,-0.19718148259729737,-0.5799398658703763,0.07274542701672314,0.145405460969339,-0.9909014177547187,0.03212513871183625,-0.30728022899182794,0.4197489752295047,-0.2933399769534828,-0.21383735908629709,0.6582580999211722,-0.8452186454605762,-0.7719505962141047,0.22679227666204604,0.1373471597781948,-0.1375671342588776,-0.18306672237156751,-0.17595282607371188,-0.06466490152415624,-1.2139530982044522,0.20095740535949816,-0.0020764468929888496,0.19912764315419723,-1.3198830044065644,-0.34666326078336396,0.10300144809289229,-0.2000222430248266,-1.146555984089962,-1.2849283954082726,-0.4253581787446155,-0.4582544744971663,-1.1589403778248877,-0.534787141003734,-0.4393115590101864,-0.6960110472468926,0.7008270621550641,0.6372757159195197,0.31345969743621005,-0.10250870380228247,0.44274915264711573,0.17766240800123184,-0.46472165595213083,-0.9500386609984679,0.7162509077908815,-0.43607481624388433,-0.31857643582238276,0.3905605621546479,0.18391752945760576,-0.8254539731071303,2.5270654588606396,0.16215304856352628,0.3495442289316541,0.7712243878695603,-0.6328205764292797,0.33630209377520426,-0.8086423885026797,0.1824650590148455,-1.3029018595895425,-0.18471053772040402,1.8513876328995915,-0.9441009331852905,-0.6154451605220619,-0.5100670056127184,0.33920605355883515,-0.10694110282951304,-0.343562259747016,0.06103588135710384,0.8734869620603742,-0.5191701426131697,-0.3645585111301449,0.5311671025165204,-0.02025386798710249,-0.5025228604021732,-0.43432131985925654,-0.7797037805622824,-0.44212134899141087,0.6444598000109057,-2.3410396998575993,-0.7879224253220041,-1.1234443063967605,-0.13959917663321866,0.15759456943831024,0.24671320306147945,-0.22983494468966753,0.507402772654123,0.4032065768913445,-0.5947781184988686,0.9621085514551492,-2.430642736303196,0.942895947001279,-0.3651108659543862,0.3135156764448758,-0.8633857014691817,-0.23028575123547168,-0.8566370135233736,-1.5387317075151048,0.39720678616769,-0.8777634116012406,-0.4761472220101962,-0.24669905215008145,-0.6648346168167906,0.35457962868748466,-0.1988009561015916,0.22538461695571174,0.24936692362583368,-0.8924137564798232,-1.3176108652313285,0.28664047655253944,-0.1513186531443702,-0.9623607961721965,-0.5519954125594465,0.49067831935398376,0.15945847033953767,-1.1115819011258088,-0.13271499986936428,-0.35107211088726853,-0.4312853640357041,0.22036121682427232,-0.3973661726295957,0.07372398145126419,-1.2680079003876856,0.986812106691696,-0.805611885866823,-0.0891486395580329,-0.6775653013493221,-0.608791750418153,0.8980408225508028,-1.0655081977694068,0.42610376998518174,-0.16052856060696122,-1.2090309365343777,1.3590114052532274,1.1282123556861527,-0.7238527723684889,-0.9375262343687835,-0.6227410002050584,0.5526149548908184,0.33318305297108464,0.7596328988448968,-2.050032396206131,0.023183327009440667,0.5053404024656636,0.5085600079706036,-0.1345498421751166,0.2840213737244424,0.341634868191351,-1.2821227972383362,0.38636230010892636,-0.3945965738643493,-0.41665265316777,1.0570691820689684,-0.5402188029690635,-1.135895663965556,-0.18427300114384892,0.8005500653440446,0.69802428682659,-1.8598994302262162,-0.7441482649389316,-0.2762262004234266,0.47224848045098516,-0.9131546313886639,-0.12293208916554049,-0.2092615947543781,0.6794300225514618,0.3245958761923649,-0.1486531609004362,-0.8497767570753906,-1.281484433803562,-0.7618862340181454,0.5131928345970264,-0.46403001847398145,0.7281734564439857,0.24837496390073163,1.287961368204623,0.4110724882531894,-0.4553529455422243,0.4041180837321898,-0.8234859088890515,0.20104960926101342,1.6816268533295888,-0.4887201687213591,-0.5926346823503983,-1.1741529810678861,-0.650221290177936,0.6419728153540959,0.2604149650625006,0.5463380101463708,-1.7562825279689933,-0.4813549199866459,0.45417425205775597,-0.3106822778686304,1.0173367595577023,0.5345821817977736,-0.9018958036582149,-0.6647599193958385,0.16613614331240886,-0.5245480400514356,0.3069258399734247,0.11966138591871588,-1.5956127056344578,-0.7808369473346525,-0.11620376738282277,-0.869860467240617,0.1185676463809966,0.17979679127635323,-0.23193566589891684,1.0508381754343383,-0.6167759685082492,-0.5526813742902406,-1.8562570840980899,0.53781765809617,0.6513047063257976,-0.4860953057558789,-0.5771730281728601,-0.613832027888666,-1.0734732491582561,0.7184769670061506,-0.6334857466513321,-0.02003722317339088,-0.31703547506205554,-1.681520057157245,-0.4350518490618428,-0.9719174606197016,-0.35715088393630334,0.04298649094592981,-0.8403945416183767,1.183168722073677,0.5407492425094689,0.20176745224436848,-0.5734308646743265,0.20885047428587178,-0.9589066053636676,0.32843691845672757,-0.0639215032179957,-0.9953745009717188,-0.8753527783755601,-0.5158246723782179,0.5447970483798712,0.21145165902516888,-0.791713447063959,-0.2585192380380108,0.17861148908417318,0.9655499889556037,-1.0881125657540893,0.38417234536243683,-0.8957144642542155,-0.5033122856410097,-0.9367041062904341,-0.6842286520640378,-0.45494779303526867,-0.9935942316275841,-0.14271766273265327,-0.37441054411511016,0.7067730851090412,-0.4668250603445919,0.47922292761182994,-0.7439537456724503,1.135336559412483,0.22680050792926404,-0.8631122437737265,0.39710086743686046,-0.20453678775306577,-0.1654912480875702,-0.08977026201585984,-0.5364716871246981,0.5145286174007817,-0.6818039423220349,0.16257873403386353,0.09231673266626805,0.3822339795092244,0.4739954562155909,-0.07081705920125758,-1.2076112979187266,0.19443742508983541,-0.9650199404564915,-1.1759639632643564,0.33309590887314344,0.2691785099250881,-0.07210301219781577,-0.4411282118244719,0.02873361211619484,-0.8356107684907546,-1.0795841784695648,-0.7814941858641107,0.16491964145008609,-0.07563765915123986,-1.7525247924597753,0.6293435538263883,-0.3902669028814419,-0.46237579608646284,0.4842413529227107,1.4315605864710466,-0.3539609545773618,-0.9877511443729253,-1.1839508551903788,0.007561320992580791,0.5362705021515184,0.200612215667869,-0.7550327384136629,-0.5758485111857475,0.8279173345234749,-0.5029298857001152,0.17296210311464472,-0.6575762055769674,-0.6426834874060672,-0.5221270275536385,0.11245719057279012,-0.3119565779639687,0.1441085648527366,-0.3450903551773772,-0.17840272790619913,-0.5954700803901485,1.3951243638625872,-0.2607725722517447,-1.179214205685753,0.006252043330168778,-0.37884311985536334,-0.3900526327204406,0.2628846148008375,-0.8732515033518796,-0.31447894263117676,0.6450569295190995,0.1275502714312624,-0.23100098902334565,-0.029273865047287417,-0.5050224446263859,-0.8519579768240519,0.8304120064198033,0.34187149502317066,-0.02177302200490552,-1.6039998247159648,0.6411493341082356,0.4557045748022277,-2.092746832473664,-0.47525698564407204,0.29207034000592347,-0.19092798097825245,-0.7890678666582241,-0.4772699299945819,-0.17367840358641903,0.03401093575024221,-0.2720034368910263,0.2722555932266708,0.4965246269144888,-0.9141445526482589,-0.853240523318241,0.5742925960979235,0.1291690188257405,0.26713184391628786,-1.0395438878166345,-0.30738926262408,-0.9807318062750305,-0.2761478109963972,0.055900584091192355,0.25084114539321145,0.3049792173641086,-0.22335543070016722]]